encog,BasicNetwork,java,3.4.0,1,1712156956616
[BASIC]
[BASIC:PARAMS]
[BASIC:NETWORK]
beginTraining=0
connectionLimit=0
contextTargetOffset=0,0,0,0
contextTargetSize=0,0,0,0
endTraining=3
hasContext=f
inputCount=5
layerCounts=3,13,35,6
layerFeedCounts=3,12,34,5
layerContextCount=0,0,0,0
layerIndex=0,3,16,51
output=0.1039050588,0.0100176896,0.9929260852,0.9838279394,0.9990336792,0.9999998318,0.1471536217,0.9999715723,0.9997556185,0.9999999964,-0.2536435782,0.9999898779,0.8721223156,0.9617783408,-0.9985364097,1,0.9946799851,0.9134078924,0.8949452623,0.7150709999,0.7417838157,-0.9103249332,-0.0896723139,-0.4449589821,-0.3844599042,0.5675801839,-0.0569157958,-0.3513202844,-0.6254604225,0.8316266324,0.2517018676,0.018152104,0.5055180551,-0.4578806835,-0.7040218188,-0.878116892,-0.886446278,0.9436386025,0.7272536351,-0.375113487,0.9062333087,0.1374390379,-0.3720497647,0.7447614779,0.8326979815,-0.2595639422,0.1855899002,-0.5617826705,-0.9054321502,0.793509941,1,0,0.15,0,0.35,0,1
outputCount=3
weightIndex=0,39,459,663
weights=-0.0052167632,2.9054332603,-0.6305254323,-1.3381770911,-0.3744043242,-0.6062758684,-1.2776239035,-1.3562717471,0.0002017813,-0.0137616656,-0.0153493116,0.0242944386,-0.0008116622,-3.3271252999,-2.600809933,1.1707268367,1.6625088393,1.8672129938,0.0557886266,0.8067210115,0.9830764461,-0.5884837682,-0.9401235023,-0.3491934261,-2.9465212113,0.7879763049,-1.4291198264,-0.0147905275,-1.9507485486,-0.002468047,0.0159650115,-1.005708792,-0.0209412185,-0.007513224,3.1330707354,1.5277231429,1.4498174376,-1.3988017381,-0.0556557035,-0.5148442536,-1.2144196236,-0.0909199834,-1.2336490785,0.6946179066,-2.8785953197,-0.4185024203,1.1067047475,1.316987121,0.4492225883,-0.9523690641,-0.8958046237,-0.821337896,0.3672022811,1.6777762522,0.9353045313,-0.7598428687,-2.2461817384,-0.0725307152,0.9804457399,0.8199751619,-0.254978448,-0.9176940683,-2.6007069175,1.0527802327,0.0641021632,-1.3321094102,0.8379410098,-0.5713919318,0.843069348,0.5852605821,-1.8254788321,1.7193092387,1.9262202463,-0.7361012289,-0.6069002726,0.3389643731,0.4872012754,0.769090364,-1.1849317677,0.66938757,-0.3475113654,-0.787836325,-1.0345185436,-1.6982855626,0.4394262439,-0.3904948486,-0.603738445,-0.0792946671,-0.5059246841,-0.5928626916,0.6052178472,0.6426840272,0.1507911551,-0.7521453657,0.4077137781,1.8804730055,0.7994631192,2.5072981214,0.9728291086,0.6862828725,3.2019431907,-0.7312966063,1.2816599412,-0.9864915857,-0.3428897716,-0.768268868,-0.7038974524,0.2622311015,1.1158403787,-0.1237837608,0.0906244101,0.7066875989,-0.3203764598,0.314683714,-0.458461102,-0.5919353271,-0.3625426366,0.7392167848,1.1983839988,-0.0223413124,0.3586937009,-1.1912787447,0.4102521433,-1.2771970122,-0.4201660179,1.0904615501,-0.8238046426,-0.5495331004,-0.5781864683,-0.5980770793,0.278404451,0.6843640518,-0.8956071953,-0.0703176393,0.0028377917,-0.1764076893,-0.1765455811,1.117944872,0.3227276263,0.5829597815,-0.6871645835,-0.3565187957,0.1365560351,0.796129477,0.1192729068,-0.8911057075,-0.6249135209,0.9064936139,1.1933898241,-1.3080123131,0.9280111956,-2.5452517041,1.5786192043,-0.5471223276,-0.3742380254,-1.0252850758,-0.5191618827,0.7135941302,-1.1491655208,1.1073947465,-0.2535106608,-1.9071203015,0.5190776166,0.277722221,0.7202476559,-0.6033524133,-0.194191613,3.8216344228,1.9395436639,-0.2804514415,3.7584401967,0.2628663405,-0.0535171848,-0.3870446121,-1.2009751844,1.3726606588,-0.8159541388,-0.5860615469,0.3108729393,0.5562135049,-0.1031660841,1.1028509602,-0.506567556,-0.2839810899,-0.1727114108,0.0148566089,-1.0915493319,-1.1991476634,-0.4491746622,0.185948661,-0.3446189514,-0.6678794201,0.9595917957,-0.3510447652,-0.0533374176,0.9378567797,-0.2703123279,-0.541294867,0.6079428627,0.3199989758,1.4883257083,0.1684519,-0.398640395,-0.8165031275,0.2395690218,-0.2674064218,-0.8783263015,0.1830741332,0.9430055848,0.2103720229,0.7902841216,-0.6117598998,0.7916564519,1.3618189403,0.0825989005,0.592309397,0.4952545672,0.1525869824,0.6618571556,0.2901632571,-0.5527536064,-0.2575607631,-0.7857294141,-0.0290872091,0.0823728704,0.0007127508,-0.064421325,-0.9420426716,-0.5562739305,-0.6534901854,0.9814091734,-0.5997426809,0.6299652937,-0.8979292128,-1.1766048865,-0.6015139358,0.7039305906,-0.607177533,-0.5464199213,-0.3362750853,-0.3634766081,-0.4411923129,0.991621182,0.2303564189,0.4119716528,-0.1906677026,-0.7023558719,0.1599108204,0.2444189254,0.9402626028,0.3216057921,-0.0030702459,1.1301398316,-0.822646704,-0.2676977432,-0.2486733346,-0.4539442541,-0.7184672868,0.4718204193,-0.5329923578,0.4706095984,-0.6275405913,0.6040534482,-0.2561383369,0.369841257,0.7551160776,0.5346704318,-1.740783937,-1.1749746787,-0.5018372166,-0.1055252299,0.2725621197,-1.3687747197,-0.2140074107,-0.2508857268,-0.492614544,0.3292630294,1.3535520447,-0.5241145965,0.114849276,-1.0487822366,-0.8620856971,0.4728881942,0.2547918255,6.0929644346,-0.2382980283,-0.8959441432,0.0684297334,-4.7779251536,-4.4776955861,0.0747318828,1.1447745432,1.598534493,-3.8673550388,0.9895702315,3.16089584,1.0497216206,0.9727011095,2.1520540771,-1.1832008632,0.2526172047,1.5857792663,0.5657090578,1.1090059865,0.8540798346,6.2347872082,0.0110544661,-3.4337198406,-5.3154314766,0.7734734757,2.578459166,-0.3424437234,-0.4887258311,-0.9162987348,0.2559784219,-0.7801658766,-0.0458982228,-0.9773004522,-0.1708584989,-3.3540292591,0.4175962794,0.739141962,0.4362936683,0.8116358692,-2.0338393122,-0.8113756007,-0.3514365082,0.8109478663,1.9310988955,0.3424505251,2.470679849,-0.0241004517,0.7621856512,-0.0709345689,0.7972183446,0.6674569629,1.0428419622,0.0355720355,-1.1860599402,-0.4764226262,0.2952588918,0.8144415337,-0.3903622886,0.6047119098,0.771234804,0.6755229701,0.7440925788,-0.2793075922,-1.1758522351,1.0499166618,-0.9508945157,-0.5135601346,-0.1223591184,0.4107876968,0.9251875222,-0.5856703754,-1.3169465601,0.1786687121,1.0634316382,-5.1702258297,-0.0425170425,-2.0105149286,-3.5106757255,0.2299735142,1.9210100162,-2.5112541133,-0.0699747887,0.1267506099,-0.9532083703,0.8778611125,-0.1209786871,1.1762888959,1.0849578527,0.6402693617,0.5751602818,1.2516850193,-0.8904770447,-0.5781619085,-0.6486033009,-0.5078198242,-3.529105246,-1.9862865039,-2.0474515639,-0.6416987301,-0.1019204895,2.3975135327,-0.1840098679,-0.7465980153,-0.7256626276,0.1953627756,-0.5734177229,0.8648711699,-1.6434715534,-1.1520429475,0.6503924797,-0.8623712474,3.1934030935,0.385931596,-0.9929932253,0.3786901497,-3.2489310406,0.1133415883,0.2211602235,-0.1361604569,-1.4944537776,0.5112846202,1.7872340762,0.7646753685,-0.257123525,-0.0669659773,-0.3940829489,-0.8892432537,-0.2923516545,0.1318936651,0.9260903261,-0.8024292313,1.8442905164,-0.6241217672,-1.1057853242,-0.2273646857,-2.7255986532,-0.7311315015,1.9747121136,1.3482758997,0.1307444335,-0.7422862583,1.2697841107,1.1447192305,-0.9753571405,1.2995225738,0.6489432527,1.5206740197,-1.0866772069,-1.6052509976,1.3010997861,2.3463945925,1.1380304257,0.0297991461,-1.1994244352,0.1875335752,1.2009176401,1.0109622094,0.8394613859,0.9747898282,-0.8864609309,1.4944815486,0.5761433656,1.4301880355,-0.3484127148,1.2853044378,-0.8132306746,-0.160443709,-1.2846246705,-0.6061997188,-0.8368570492,0.8797377948,0.8453931355,0.7204541325,0.9378140551,-3.8064495025,5.4336474998,-0.0875262607,-7.195380103,-2.1983361457,4.666717313,-0.6671605804,0.9902113483,0.1106120711,0.8109961988,0.324590748,1.1153358747,-0.4236329517,-0.1423080906,0.5056391143,0.3877250209,0.7871740103,1.3318743093,0.4926666244,2.9722510469,-0.0048592442,-0.5704719397,-1.2031650842,0.6513123875,-8.0357304364,-2.3701789065,0.0382045379,2.5952386042,-1.6091671677,0.4016272699,10.8301253016,4.7013089806,0.3792332327,6.8330817049,1.2084002951,-4.6261928738,-1.7334192665,-0.2180034517,0.4731104181,0.0955318671,-0.445377779,-0.0906494714,3.4506290385,-5.8730298291,0.2086221618,0.8174597706,1.6209222655,0.1164464562,-0.4247375272,-6.3945392043,-1.1347729365,-3.2481812796,-0.495642313,1.6907616811,0.044890504,-5.9102458849,-0.2035216862,-2.2197612631,-0.7273389868,2.3073990809,-0.8738969005,2.0095514341,1.0116446695,-0.0664090814,1.3834153965,-0.33516691,2.4909385717,10.1937508808,0.9696117569,-3.459539171,-1.1202538754,-0.685173068,-0.6144750788,0.5194770821,-0.3287977883,1.6769497197,0.5713376076,-1.3987784208,-1.7826072313,1.1976995074,-0.2914645891,-0.2370579232,-0.551563768,1.0967032376,3.734688714,-0.0957173177,-1.1139157264,2.5049150555,-1.5535440898,-0.6051337082,-1.2861935429,-0.4333294134,-0.4927891459,-1.2393161389,1.0641289008,0.5169141588,-0.0343820625,0.929578727,0.6913758332,-0.0026825093,0.4721515261,0.4181929202,3.0807755678,3.6749882712,0.8690035877,-0.3803063597,1.7108848702,-0.9127674924,-0.2900678731,0.375029059,0.8534630545,-0.7172600382,-0.5624075068,-0.6804437317,-1.0042995451,0.280062031,0.5554556392,0.0411164098,0.0890087625,-1.4238812714,0.6356642753,0.7192276849,-1.0037051991,0.2788284588,-0.574683491,-1.6105611208,-5.011518287,5.4896645997,0.2260103871,7.5894767498,0.0362726258,-1.7095002622,0.334016318,0.9503901511,-0.0198738992,-0.0509983898,-0.176969487,0.7981637312,-6.7209511869,-2.1365823648,-0.6570325599,-4.7549250571,0.4841984006,1.5903503804,-1.5102133334,0.8681552155,-0.3683766699,-7.3080168064,-1.723286973,3.9336199973,-0.2510344227,0.614834874,0.8401172392,1.207827881,-0.340109461,-0.3766506248,-5.1748919755,-7.7256422026,-0.2092104834,-2.4326536617,-0.5425033958,1.6194750324,1.7867821998,-0.6193447638,-0.9455109621,1.365313368,-0.9300644789,0.5761293596,0.3577546718,0.9455911289,-0.6938652227,-1.7025918924,-1.6014346003,1.6509403899,-0.5444468417,-0.788434218,-1.1526111791,-0.80719407,-0.4013826066,0.135142266,0.4800550835,0.5456183588,-1.1657058855,1.1917481399,-0.4148292733,-0.3111887585,-3.4143370371,1.6002311796,-0.8830658495,-3.0783328737,0.231891007,0.2019477229,0.5278423101,-0.8117277471,-0.1600884782,-1.1056829194,1.1726673283,-0.99282509,1.2948148457,-1.3789328297,-0.1112895322,4.1627253133,-0.6905909431,-0.1692751509
biasActivation=0,1,1,1
[BASIC:ACTIVATION]
"org.encog.engine.network.activation.ActivationTANH"
"org.encog.engine.network.activation.ActivationTANH"
"org.encog.engine.network.activation.ActivationTANH"
"org.encog.engine.network.activation.ActivationLinear"
